<?xml version="1.0"?>
<opencv_storage>
<my_svm type_id="opencv-ml-svm">
  <svm_type>C_SVC</svm_type>
  <kernel><type>LINEAR</type></kernel>
  <C>1.0000000000000000e-002</C>
  <term_criteria><epsilon>1.1920928955078125e-007</epsilon>
    <iterations>1000</iterations></term_criteria>
  <var_all>1296</var_all>
  <var_count>1296</var_count>
  <class_count>2</class_count>
  <class_labels type_id="opencv-matrix">
    <rows>1</rows>
    <cols>2</cols>
    <dt>i</dt>
    <data>
      -1 1</data></class_labels>
  <sv_total>1</sv_total>
  <support_vectors>
    <_>
      3.34424935e-002 -1.60525851e-002 -1.34603363e-002 1.77393425e-002
      5.92740215e-002 9.56094414e-002 1.62567925e-002 3.55032235e-002
      7.11665228e-002 -1.22627839e-002 -2.06246227e-002 -6.85319826e-002
      5.71376644e-003 1.77981555e-002 -2.78130313e-003 1.66492332e-002
      4.56103031e-003 1.31443040e-002 -5.93650434e-003 1.19468067e-002
      3.57133709e-002 -5.68441190e-002 -3.51037607e-002 1.21679669e-002
      -3.02172732e-002 -2.29653828e-002 1.84896551e-002 1.83787290e-002
      -1.15054315e-002 -2.01605726e-003 -2.28419714e-002
      -7.73411291e-003 -6.14294931e-002 -1.61269549e-002
      -2.63056997e-002 7.75606744e-003 -4.89012562e-002 -8.09666060e-004
      2.73995735e-002 6.59731999e-002 5.22568785e-002 -1.65539440e-002
      -4.23938334e-002 -3.99568072e-003 -3.46782431e-002
      -2.08748747e-002 -2.53485478e-002 4.34543937e-003 4.49731909e-002
      7.32975453e-002 2.61845775e-002 4.48043598e-003 2.48916838e-002
      -1.79384854e-002 -1.37443077e-002 5.96797373e-003 1.03808828e-002
      -1.33204442e-002 5.89142228e-003 -5.32076024e-002 -5.32163158e-002
      2.25334894e-002 -1.54904528e-002 -2.57171318e-003 4.01086174e-003
      -2.97254156e-002 -3.36066075e-002 2.77261212e-002 -3.85671854e-002
      -2.89065745e-002 -9.30919033e-003 -1.45098101e-002
      -1.20253600e-002 -1.03480031e-003 -2.60077114e-003 5.45889102e-002
      -5.97830024e-003 -3.20565328e-002 -6.37259856e-002
      -6.53039897e-003 -3.83300409e-002 -2.22456008e-002 3.72887328e-002
      7.09912926e-002 -1.03778662e-002 6.37318101e-003 2.07042936e-002
      3.28170694e-002 3.69536392e-002 -1.56354569e-002 -1.41916983e-002
      -3.92706040e-003 -3.06441262e-002 -3.11195781e-003
      -7.45086931e-003 -7.00135604e-002 -4.90744151e-002
      -3.45473476e-002 -6.39861915e-003 -1.06498208e-002 2.22904738e-002
      4.23228182e-002 -1.67702488e-003 6.52306073e-004 2.23313738e-002
      3.32457125e-002 -2.21598130e-002 -1.30032683e-002 1.36966712e-003
      1.46965086e-002 4.04705256e-002 -3.75362625e-003 -5.59125803e-002
      2.34975182e-002 2.61418661e-003 1.78636648e-002 1.07768853e-003
      2.37742085e-002 -2.56022085e-002 -1.96648948e-002 -3.86864282e-002
      -7.09822103e-002 3.48361135e-002 4.22523264e-003 2.79315487e-002
      3.46870050e-002 -2.42229346e-002 -1.63366850e-002 1.25364717e-002
      -2.32229121e-002 -5.12964875e-002 -6.43651560e-002
      -4.31758836e-002 -7.16166943e-002 -5.72605021e-002
      -3.25689800e-002 -2.53243223e-002 1.78490970e-002 -2.96224225e-002
      -2.70747673e-002 3.01100500e-002 -1.35432333e-002 1.37457876e-002
      3.75541323e-003 -2.44436897e-002 3.75740640e-002 6.67483285e-002
      -1.02830082e-002 -2.81134341e-002 6.15485944e-002 -1.29830781e-002
      4.11728770e-002 -3.23967193e-003 -3.32605690e-002 5.16767753e-003
      5.32039329e-002 3.69090773e-002 2.27118600e-002 3.97124030e-002
      1.97981540e-002 3.92553583e-002 -2.35291198e-002 5.36800399e-002
      -1.16291223e-002 2.20677797e-002 -3.17210257e-002 9.80044156e-003
      1.70320813e-002 -3.33779193e-002 1.77271962e-002 4.30505462e-002
      -2.35350411e-002 -3.42360586e-002 -4.44118902e-002
      -1.58490166e-002 -1.83634087e-002 -6.53477479e-003
      -5.62088154e-002 -3.31045091e-002 -2.70283390e-002 1.46330353e-002
      2.22084224e-002 -6.42905757e-003 -2.61997599e-002 2.18192339e-002
      -1.83111988e-002 -1.06616830e-002 4.86651286e-002 4.22146469e-002
      2.92775761e-002 1.74778420e-002 -2.66061015e-002 2.19253753e-003
      2.46504601e-002 1.90097354e-002 -7.27249251e-004 5.33557264e-003
      2.31346879e-002 2.83584837e-002 5.03949309e-003 -3.04801483e-002
      -5.75449355e-002 1.25400070e-002 -1.88017692e-002 -3.26266140e-002
      -4.84997816e-002 -4.73507622e-004 1.69648211e-002 -2.27510240e-002
      -4.11740653e-002 -4.00271416e-002 -1.94061939e-002
      -6.12326451e-002 -4.55668978e-002 -3.29722837e-002
      -7.78879924e-003 3.51156071e-002 1.22262277e-002 -2.84298677e-002
      6.18086420e-002 2.70710239e-004 3.87514085e-002 6.88713102e-004
      -1.79902278e-003 5.18278517e-002 2.07557026e-002 1.43368123e-002
      -1.69592481e-002 -7.52797257e-003 4.36897129e-002 5.79930209e-002
      2.55164467e-002 2.74749566e-002 5.08220978e-002 -9.31060058e-004
      -1.92421582e-002 -4.83517498e-002 6.91553485e-003 -3.04275732e-002
      -6.44120052e-002 -4.27856445e-002 -3.85992900e-002 8.23383499e-003
      1.28990123e-002 -2.37716176e-003 1.49179599e-003 -1.14255985e-002
      -2.80287061e-002 -1.25511615e-002 -8.40116816e-004 6.67073252e-003
      1.90817900e-002 1.44203380e-002 4.58525233e-002 2.50203963e-002
      2.68100612e-002 1.59664676e-002 3.21366154e-002 -4.19678539e-003
      1.11703668e-002 3.04436292e-002 3.15658636e-002 7.26910010e-002
      6.53903857e-002 4.22563180e-002 3.51954699e-002 8.55589435e-002
      1.49670187e-002 4.47487868e-002 7.85862803e-002 -4.45472524e-002
      -1.21790441e-002 9.47543234e-003 -2.05144733e-002 -4.25549597e-002
      -6.85785860e-002 -2.01811343e-002 -1.13348337e-002
      -6.17142813e-003 2.09994726e-002 2.61793081e-002 2.28842441e-002
      -3.10593210e-002 -1.59986708e-002 3.06020919e-002 -5.59714250e-003
      -3.41878319e-003 8.28078389e-003 -1.05994651e-002 1.41118921e-003
      2.06298623e-002 4.10946459e-002 6.61050295e-003 4.65238206e-002
      7.45461807e-002 4.34661470e-002 1.60947186e-003 -3.82461399e-002
      -5.85635472e-003 -4.47171042e-003 -3.83042768e-002
      -2.67022662e-002 -2.84661632e-002 1.99643876e-002 -4.50294046e-003
      -2.45653279e-002 2.34725978e-002 -2.36565452e-002 -1.55609865e-002
      7.11914059e-003 -5.86704409e-004 5.94204932e-004 -1.03752818e-002
      3.66937481e-002 2.93246415e-002 -5.16076945e-002 -3.43412496e-002
      -2.19724420e-002 -4.89676818e-002 -1.03485696e-002
      -2.16008928e-002 -1.35573251e-002 -8.29569064e-003
      -4.34629694e-002 3.05632968e-002 4.62559424e-002 3.06508429e-002
      -2.43701339e-002 3.26834694e-002 2.96817571e-002 4.54041809e-002
      -3.06392857e-003 2.30984315e-002 4.66846116e-003 1.80979148e-002
      8.88616405e-003 -2.62390021e-002 -1.99827757e-002 -3.96704897e-002
      1.92510001e-002 -1.60904881e-002 2.49650404e-002 -3.67022795e-003
      1.85427617e-003 1.69181973e-002 -4.17032279e-002 -2.61601359e-002
      -3.13951075e-002 -3.37625779e-002 -2.21591666e-002 1.59475319e-002
      -3.15004587e-002 -4.23166789e-002 -2.48529250e-003
      -3.06810327e-002 -3.41564640e-002 -2.71006227e-002 1.95491854e-002
      2.00715791e-002 1.38847344e-002 -3.42470296e-002 1.31024905e-002
      1.18702631e-002 2.70978455e-002 1.22708296e-002 -7.82499614e-004
      2.05412954e-002 4.65740673e-002 4.65019532e-002 -2.78017558e-002
      -1.51516357e-002 2.83666304e-003 4.85480428e-002 3.39812823e-002
      5.10159135e-003 -1.21525619e-002 3.91489230e-002 1.91255398e-002
      -1.57942269e-002 -2.74451673e-002 4.01455676e-003 1.03855329e-002
      -1.20960474e-002 -3.60467657e-002 -4.03888989e-003
      -1.26427468e-002 -1.95327159e-002 -4.65736687e-002 2.86262110e-002
      -9.59101040e-003 -1.68044697e-002 -4.67523560e-002
      -3.72853875e-002 -2.00940445e-002 -2.13713106e-002
      -5.13497852e-002 -6.60234913e-002 -1.57619622e-002 2.17687450e-002
      2.05120947e-002 1.94059424e-002 7.56580709e-003 -1.39513211e-002
      1.70408171e-002 -7.09558278e-003 2.78651398e-002 1.24894660e-002
      3.29915583e-002 1.94557605e-003 5.17835729e-002 8.90216678e-002
      -3.18429433e-003 -5.24639664e-003 -1.89160113e-003
      -3.47514935e-002 3.48125547e-002 -2.27233265e-002 -1.63312571e-003
      -5.43726236e-002 -7.85807893e-002 -4.68866937e-002
      -6.47099987e-002 -8.63008872e-002 1.40228262e-002 8.90046638e-003
      -9.30977054e-003 -3.77838165e-002 -7.90484101e-002
      -1.44721316e-002 -3.69467884e-002 -7.29365945e-002
      -7.83068612e-002 2.53961068e-002 1.51839303e-002 1.77001418e-003
      -1.26662795e-002 7.89277349e-003 2.97484733e-003 -1.00782365e-002
      5.42499758e-002 3.95095870e-002 -1.66101716e-002 9.98795591e-003
      3.15679461e-002 1.30094746e-002 1.80606898e-002 -5.04089221e-002
      -4.65857796e-002 4.17251280e-003 -1.39936451e-002 2.79521365e-002
      2.18233392e-002 1.47325378e-002 -2.87475027e-002 -2.81071314e-003
      -9.61030740e-003 -1.65124480e-002 2.59585604e-002 4.39361483e-002
      -1.08770439e-002 -3.07022990e-003 -2.12837551e-002 9.57378652e-004
      2.97080982e-003 -4.04983871e-002 -6.51483610e-002 -8.61247443e-003
      -3.38477897e-003 1.30500225e-003 -1.86397359e-002 -1.33355511e-002
      -2.64366008e-002 2.35056765e-002 2.23502498e-002 8.26798286e-003
      1.73041672e-002 5.16341366e-002 -1.88159868e-002 -3.56812775e-002
      -5.85552817e-003 -2.81841885e-002 -2.38845572e-002
      -2.25647856e-002 -1.32841617e-002 2.99401395e-002 1.34609975e-002
      1.01963840e-002 -1.14089926e-003 -3.45225483e-002 9.16229747e-003
      -1.77403390e-002 2.20367014e-002 -1.04126642e-002 8.76180921e-003
      4.36332710e-002 -4.71448265e-002 -2.06271149e-002 -8.29075370e-003
      -1.88029613e-002 -2.76921000e-002 -8.32153391e-003 1.01743713e-002
      -2.02177500e-004 -2.44184141e-003 -5.93611449e-002
      -2.27506831e-002 -1.24233158e-003 1.21009623e-004 1.91310700e-002
      1.15305046e-002 1.95295196e-002 -5.81112225e-003 -3.31426114e-002
      -2.76763234e-002 2.33478993e-002 -7.86271121e-004 6.68496266e-003
      -2.88289767e-002 -1.43652493e-002 9.22075287e-003 -1.56968199e-002
      -6.29029050e-002 -6.77147880e-002 -7.39609450e-002
      -5.30923530e-002 -4.84421551e-002 -1.14284484e-002
      -2.21191030e-002 -4.24730517e-002 -7.67906159e-002
      -6.43634200e-002 -3.00647672e-002 -1.71104111e-002
      -4.63233404e-002 -3.03534642e-002 -7.62128159e-002
      -5.45772910e-002 -3.04308403e-002 -3.61419469e-002
      -6.86712191e-002 -4.19761166e-002 4.70536016e-002 -1.64131913e-002
      3.31293494e-002 -9.07060597e-003 2.31706481e-002 2.11617630e-002
      2.43057068e-002 -5.94613031e-002 -2.99363863e-002 2.55481452e-002
      -1.30082620e-002 9.17365483e-004 -4.20694984e-002 1.67761780e-002
      -2.78914664e-002 2.64816708e-003 -5.27054779e-002 -8.00555348e-002
      -3.17731779e-003 -3.74747775e-002 -2.12207027e-002
      -7.37691671e-002 -5.82853779e-002 -1.45599805e-003 5.02372533e-003
      -5.56374677e-002 -7.89806545e-002 -2.85153836e-002
      -5.96448071e-002 -4.22828645e-002 -1.15312882e-001
      -3.06897033e-002 -3.92050147e-002 -2.27959566e-002
      -3.05224359e-002 -9.97346081e-003 -4.89229299e-002
      -1.60604101e-002 -4.65746038e-002 1.02408938e-002 3.04954965e-002
      -2.96261143e-002 -7.02266209e-003 3.47087793e-002 -3.92172262e-002
      -3.99959683e-002 -1.46666018e-003 1.13462443e-002 2.96779219e-002
      -3.96616235e-002 -1.44360783e-002 -2.89934743e-002
      -4.90009375e-002 -1.61364116e-002 9.40659083e-003 1.57171488e-002
      -5.23212068e-002 -2.40354426e-002 -6.77896850e-003
      -3.93175445e-002 7.95638934e-003 2.70127244e-002 -2.15124339e-002
      -1.55753940e-002 -2.98797265e-002 -3.02233752e-002
      -1.86973140e-002 -1.69434249e-002 -1.22528272e-002
      -1.66063420e-002 -1.41693056e-002 -2.81962119e-002
      -1.69899650e-002 -2.94123273e-002 -5.70130767e-003 1.56259984e-002
      -3.72721888e-002 -1.26609635e-002 1.10535566e-002 3.50985420e-003
      -4.12581675e-002 -2.09123753e-002 2.91713234e-002 -4.61539859e-003
      -6.25365274e-003 -4.76438366e-002 -1.17886895e-002
      -1.09609338e-002 9.64524879e-005 1.95884574e-002 1.35334469e-002
      8.21463205e-003 -3.57857198e-002 -3.55812572e-002 -4.13093828e-002
      -2.24094149e-002 -1.84063315e-002 -1.35480217e-003
      -4.12462130e-002 -3.19972844e-003 2.31473446e-002 -2.01453213e-002
      7.15563120e-003 -4.89676781e-002 -1.73249636e-002 -3.85694439e-003
      2.56288219e-002 -9.99596249e-003 -2.58139390e-002 2.31347550e-002
      -9.33678821e-003 -4.05262671e-002 -3.72404605e-002
      -1.90916248e-002 -2.17700191e-002 -1.88528597e-002
      -9.46809910e-003 -2.29368475e-003 -5.47702750e-003
      -5.39313331e-002 -5.11341989e-002 -6.38613626e-002
      -6.64023757e-002 -4.11169119e-002 -3.18324827e-002
      -1.69254467e-002 -2.31631175e-002 2.89675668e-002 -3.17343734e-002
      -8.24665837e-003 5.59449475e-003 2.48998869e-002 -2.79539600e-002
      -2.46004947e-002 -5.30882105e-002 -2.90605370e-002
      -4.40834183e-003 -9.74724069e-002 -6.72966838e-002
      -4.37996946e-002 -6.81379661e-002 -1.31765138e-002
      -2.28180457e-002 -5.72730638e-002 -4.81015481e-002
      -3.07166316e-002 1.56536326e-002 1.82514254e-003 1.06010470e-003
      -2.85575278e-002 -3.73815969e-002 -4.20832746e-002
      -5.22533804e-002 -5.71876159e-003 -5.59584126e-002
      -1.10241212e-002 -3.24918143e-002 -1.75944623e-002
      -6.51469007e-002 -2.07574125e-002 -2.50813607e-002
      -1.00179397e-001 -9.23274201e-004 -2.60081328e-002
      -1.87653564e-002 -3.99784707e-002 -2.90532205e-002
      -1.02916650e-001 -5.99343479e-002 -8.87640640e-002
      -1.57510005e-002 7.76326656e-003 -5.85919283e-002 -1.46477511e-002
      -2.51973718e-002 -1.79575589e-002 -2.86957212e-002 6.31479919e-003
      7.46853463e-003 4.79797926e-003 1.87824871e-002 1.02144433e-002
      -2.06972398e-002 -5.41974343e-002 -2.91557722e-002
      -2.79704314e-002 1.20425289e-002 1.20212147e-002 -9.58400778e-003
      -4.12554257e-002 -3.83170247e-002 -4.96595055e-002
      -3.54210027e-002 1.79481898e-002 1.28480382e-002 4.00975831e-002
      3.08541059e-002 3.36153954e-002 2.02049594e-002 6.98678661e-003
      -2.30171662e-002 2.72658765e-002 8.46319553e-003 6.62605790e-003
      4.27352972e-002 2.94419900e-002 -6.64189318e-003 -1.98604316e-002
      -3.56324464e-002 -3.36192846e-002 -1.09563293e-002 3.34398709e-002
      4.31352258e-002 3.68695334e-002 -2.88124685e-003 3.72001454e-002
      -1.93090569e-002 -3.11969146e-002 8.70252308e-003 -2.58871783e-002
      8.05473421e-003 2.56635267e-002 -2.49446966e-002 3.53205926e-003
      2.58357935e-002 -6.42485078e-003 -8.11485853e-003 -2.48494279e-003
      -2.82798009e-003 -4.05050330e-002 1.09255295e-002 -2.50461511e-002
      3.74873616e-002 7.73958024e-003 3.59012373e-002 3.68595049e-002
      2.39166059e-002 -1.68590192e-002 5.87292686e-002 3.26415943e-003
      -4.23739143e-002 -2.34551784e-002 2.18813885e-002 -7.04814866e-003
      -1.87230762e-002 -2.40579080e-002 2.28284989e-002 4.83846059e-004
      -4.37579639e-002 -4.42616306e-002 1.72857475e-003 -3.35218571e-002
      -5.14408424e-002 -7.64313191e-002 -7.18231425e-002
      -4.94332612e-002 1.06870420e-002 1.54270204e-002 -4.83213961e-002
      -6.56998903e-002 -2.97636874e-002 8.49047210e-003 -1.49770221e-002
      -4.56807129e-002 -4.52128239e-002 -1.84089281e-002 3.40923201e-003
      3.18419933e-002 -2.00874452e-002 -6.74051838e-003 2.74069188e-003
      -1.19088991e-002 -4.13036533e-002 1.86515413e-002 4.53317016e-002
      -7.19298376e-003 -2.38479208e-002 -2.81114355e-002
      -4.98980377e-003 2.26695798e-002 -9.95370932e-003 -1.94749404e-002
      7.68507132e-003 1.38413217e-002 -1.08586634e-002 -3.94694041e-003
      -4.34392393e-002 -5.53715192e-002 1.63074564e-002 -4.33518998e-002
      -4.29412983e-002 -4.90178615e-002 -4.24237475e-002
      -8.43888074e-002 -1.55289099e-002 -8.59497637e-002
      -3.96449678e-002 -3.46345939e-002 -1.00798868e-001
      -4.19857875e-002 -3.61121632e-002 -2.29324517e-003
      -3.86629663e-002 2.77229548e-002 -1.29293362e-002 -4.00962159e-002
      4.45679314e-002 1.99747942e-002 6.13308847e-002 2.53028907e-002
      -2.58101299e-002 -4.08259854e-002 2.21385565e-002 -9.12890583e-002
      -2.91120615e-002 -6.02876581e-003 -7.88258202e-003 1.96380131e-002
      3.69694121e-002 2.54672561e-002 1.02944821e-002 4.83681932e-002
      2.04962981e-003 -9.13602952e-003 1.27272494e-002 2.18953956e-002
      -2.16160063e-002 -2.02974826e-002 -3.35839204e-002
      -5.49852438e-002 -4.38007563e-002 -1.62737165e-002 1.48259783e-002
      2.29783431e-002 2.11644284e-002 -1.81303695e-002 -6.98086247e-002
      -4.74511385e-002 1.99534241e-002 3.32171582e-002 -1.43919215e-002
      -4.16847132e-002 -5.96241979e-003 3.13541628e-002 -1.78129028e-003
      3.34141664e-002 -1.47080673e-002 -2.48986669e-003 -2.76966784e-002
      -1.97555181e-002 -2.44435817e-002 -1.65549610e-002
      -6.31239265e-002 2.27420144e-002 3.71478535e-002 -3.11044063e-002
      7.81363994e-003 1.88002083e-002 -8.41115508e-003 -1.48966843e-002
      6.60862401e-003 -3.12883151e-003 -4.52263467e-002 -6.91567361e-002
      -2.98096575e-002 2.93194763e-002 -6.75010821e-003 -1.37031833e-002
      -7.52701052e-003 3.21929529e-002 3.94067392e-002 -3.50142419e-002
      -3.08066588e-002 -5.18841818e-002 -1.73152704e-002
      -5.55287153e-002 -2.02077664e-002 1.70600731e-002 4.08107042e-002
      1.18813990e-002 1.02319652e-002 3.26947905e-002 -1.86652578e-002
      4.06110361e-002 5.76450899e-002 2.80626547e-002 4.69452403e-002
      4.87467274e-002 8.28469638e-004 4.64656902e-003 4.83178394e-003
      3.77710763e-004 1.83030758e-002 3.06377336e-002 4.07430306e-002
      -2.68344581e-002 -3.96529213e-002 -3.67756188e-002
      -5.18219061e-002 -2.12714523e-002 -4.45471853e-002
      -6.17577024e-002 -7.38240033e-002 -3.95953879e-002
      -1.26689160e-003 1.16568152e-002 -1.51147908e-002 -8.91102664e-003
      -2.51408704e-002 -8.79465882e-003 -3.60529386e-002
      -4.23152670e-002 -4.29014899e-002 4.61331010e-002 8.91335774e-003
      -3.01260315e-002 -1.39226224e-002 1.90646667e-002 2.42223348e-002
      -5.57234650e-003 -2.57098004e-002 -3.62370769e-003 4.98350859e-002
      3.52913402e-002 1.11900242e-002 4.71968204e-002 1.91057529e-002
      2.47003678e-002 -1.67442597e-002 -1.82708036e-002 3.77047341e-003
      -1.20189801e-001 -6.08211756e-002 -7.54518285e-002
      -6.53399378e-002 -7.42807686e-002 -4.46429178e-002
      -4.52287421e-002 -8.24481156e-003 -1.03650905e-001
      -9.44072455e-002 -6.02445342e-002 -6.09022044e-002
      -1.38155380e-002 -4.52026241e-002 -1.46207251e-002
      -1.80172902e-002 3.05838278e-003 -4.94690277e-002 -4.02807444e-003
      -5.62589709e-003 -1.57381091e-002 2.11369749e-002 3.77678848e-003
      3.18617634e-002 1.53548196e-002 2.95692533e-002 -1.46519523e-002
      6.26192475e-003 3.75921167e-002 2.45854184e-002 4.95908037e-002
      3.74255031e-002 3.00048701e-002 1.49036702e-002 2.22035628e-002
      2.80259009e-002 -2.31668483e-002 -3.84406447e-002 -1.23018892e-002
      -1.27194412e-002 -5.00322878e-002 -4.12562266e-002
      -4.15387051e-003 -1.26761990e-002 1.32188592e-002 -4.80679162e-002
      -8.51479098e-002 -6.48998991e-002 -1.66749656e-002
      -2.68925745e-002 -4.75833043e-002 -2.38949899e-002
      -2.80564614e-002 -1.02142303e-003 4.32626344e-002 1.51737398e-002
      -8.76761973e-003 3.99298780e-002 -7.84036587e-004 -9.00183897e-003
      5.51735163e-002 4.49853614e-002 4.99859564e-002 1.96659472e-002
      -9.95878410e-003 -2.83234157e-002 2.19777469e-002 2.67214347e-002
      1.90290734e-002 1.45024192e-002 3.06133684e-002 4.05061357e-002
      -1.51766697e-003 -3.21911573e-002 -3.59561406e-002
      -4.26036604e-002 -6.51124166e-003 -1.01375654e-001
      -6.82855323e-002 -1.51733560e-002 2.88089346e-002 -9.30759963e-003
      -2.45625284e-002 -3.24246101e-002 -3.73817831e-002
      -1.31003400e-002 -3.61968204e-002 -5.92045039e-002
      -3.05808168e-002 -9.96972900e-003 4.02879417e-002 2.66053658e-002
      -1.70778297e-002 -4.11543436e-002 2.07935348e-002 -2.02349145e-002
      -1.66127943e-002 1.22968750e-002 3.25116180e-002 6.64802417e-002
      4.45092656e-002 5.70185035e-002 3.03763710e-002 3.15545052e-002
      5.08287549e-003 2.36712433e-002 1.29948473e-002 1.43015124e-002
      -1.60183646e-002 -2.59526912e-002 -7.60986730e-002
      -3.86373252e-002 -4.19324972e-002 9.02559201e-004 -3.67047563e-002
      -4.41112034e-002 -3.42546292e-002 1.98714342e-002 4.16540029e-003
      -2.01037358e-002 -6.20286427e-002 -4.33257446e-002
      -3.51719023e-003 -2.53143739e-002 -5.10802306e-002 2.95716766e-002
      4.15822677e-002 2.39276923e-002 4.69313422e-003 1.49782524e-002
      3.39508243e-002 3.20321023e-002 3.13256271e-002 2.74834433e-003
      -1.88153256e-002 7.94481710e-002 6.58227727e-002 2.56931726e-002
      9.59427748e-003 5.75396456e-002 2.76006516e-002 3.43782045e-002
      -1.28950067e-002 -9.67387867e-004 -9.05094203e-003
      -2.92056352e-002 -4.44905926e-003 -5.82445674e-002
      -4.54193801e-002 -2.41012760e-002 -1.17051778e-002 2.43226881e-003
      -1.40593415e-002 1.65390894e-002 -1.67318191e-002 9.36287083e-003
      -9.91293043e-003 2.32796930e-002 1.85790248e-002 2.02363282e-002
      2.22250316e-002 2.83311382e-002 3.08982730e-002 5.81306182e-002
      1.30762681e-002 3.73146795e-002 2.42682509e-002 5.80950230e-002
      5.29979207e-002 3.31170596e-002 5.03984373e-003 2.87839323e-002
      7.39489496e-002 7.97133222e-002 1.56063437e-002 5.30458614e-002
      7.20413476e-002 4.25145216e-002 6.84796274e-002 1.57164447e-002
      1.77241955e-002 -3.31431925e-002 4.17836849e-003 1.66913420e-002
      -3.01639698e-002 -3.40632759e-002 -1.91057622e-002
      -7.94793246e-004 1.25655235e-004 -3.89626226e-003 -1.64119042e-002
      -3.37493643e-002 -4.77818510e-004 -8.53980631e-002 7.50922831e-003
      -9.61632282e-003 -4.47839312e-002 -1.06380449e-003 5.40222116e-002
      -9.06783249e-003 7.77741848e-003 7.77945220e-002 9.05151889e-002
      -2.59339041e-003 -1.30884349e-002 2.43961811e-002 5.24915755e-002
      2.16016266e-002 -1.74721461e-002 -1.54779125e-002 7.23350421e-002
      1.56433452e-002 3.14955041e-002 -1.26165710e-002 -1.82452612e-002
      3.52596119e-002 -3.84302298e-003 -6.67431485e-003 -7.66017735e-002
      -3.26046832e-002 -6.16040826e-002 9.68999043e-003 -3.96831296e-002
      -2.99966056e-002 -4.23861109e-003 7.92841241e-003 -1.85277574e-002
      1.67829171e-003 -5.22910096e-002 -2.01689713e-002 2.60538794e-002
      -2.98896004e-002 5.70468418e-003 2.56865621e-002 -7.92584557e-004
      -3.77613083e-002 -5.50003052e-002 2.50867568e-002 1.49390399e-002
      3.98296751e-002 -3.34579945e-002 -1.38185816e-002 4.91180504e-003
      7.19235558e-003 -4.03270721e-002 8.12676828e-003 6.33083731e-002
      7.19451085e-002 1.89389288e-002 -2.65511852e-002 -1.78555436e-002
      1.41591355e-002 -3.06723639e-002 -7.37099349e-002 -6.67363033e-002
      -6.59112707e-002 -3.41227017e-002 -3.22079547e-002
      -3.38047147e-002 -5.62149212e-002 -2.60875318e-002 1.44361118e-002
      -2.69759912e-002 -4.49369624e-002 -5.84745407e-002 1.94519684e-002
      -1.57032926e-002 -4.50207945e-003 -4.67902869e-002
      -2.02830322e-002 3.47540528e-002 -5.86679094e-002 -3.12675834e-002
      3.14770676e-002 4.86611351e-002 -1.67850815e-002 1.40812984e-002
      -4.37717512e-003 5.22395261e-002 4.34892960e-002 1.44964466e-002
      3.90202478e-002 -8.47931206e-003 5.00217527e-002 1.87791474e-002
      5.44162616e-002 1.49549721e-002 -4.54211375e-003 -4.61020432e-002
      -1.34961503e-002 -5.94027191e-002 -4.68392186e-002
      -4.91003506e-003 -4.87254746e-002 -2.31294855e-002
      -3.99672948e-002 -5.91887906e-002 -2.41754279e-002
      -2.42848764e-003 -1.48110120e-002 -3.22999023e-002 2.09165737e-002
      1.88701674e-002 -2.34226696e-003 3.26190679e-003 -1.90835055e-002
      3.38581651e-002 -1.04191864e-003 5.41049056e-003 -1.83575954e-002
      -2.46201139e-002 -7.30053196e-003 1.35356328e-002 -3.72203300e-003
      1.84796564e-002 4.42466773e-002 -2.13545207e-002 2.85073053e-002
      8.30816664e-003 -6.06556386e-002 5.76091558e-003 -1.59445190e-005
      -1.05927996e-002 4.15557101e-002</_></support_vectors>
  <decision_functions>
    <_>
      <sv_count>1</sv_count>
      <rho>-1.7455095481872580e+000</rho>
      <alpha>
        1.</alpha>
      <index>
        0</index></_></decision_functions></my_svm>
</opencv_storage>
